{
  "inputs": [
    0.3872687189115518,
    0,
    0,
    0,
    0
  ],
  "outputs": [
    0,
    1,
    1,
    1,
    0,
    0
  ],
  "biases": [
    0.08987440278065259,
    -0.23320927816234321,
    -0.33396429075863343,
    -0.32651968843358964,
    0.10097820201907151,
    0.427526169574522
  ],
  "weights": [
    [
      -0.07062937922307638,
      -0.07531351276705264,
      0.04449910136895599,
      0.30754009178197095,
      -0.084236939894144,
      -0.6396045789660824
    ],
    [
      -0.647015035868286,
      -0.45137785949545933,
      -0.007090943443553321,
      0.5239302521731872,
      0.5591993889903767,
      0.24398070314665526
    ],
    [
      0.24040950526062543,
      -0.546477915871955,
      0.2067120972209232,
      0.40806309702463534,
      0.2116634657385046,
      -0.2290753880731436
    ],
    [
      0.1423241520035529,
      -0.18143605571850258,
      -0.5636758957729273,
      -0.059056131199154885,
      -0.07997861474426446,
      0.4809703938543398
    ],
    [
      0.08285014319802655,
      -0.5169021743023328,
      -0.5112876153473991,
      -0.40731492831482285,
      -0.06499108150349694,
      -0.5040050122758399
    ]
  ]
}

{
  "inputs": [
    0,
    1,
    1,
    1,
    0,
    0
  ],
  "outputs": [
    1,
    0,
    0,
    0
  ],
  "biases": [
    -0.19534285246689426,
    0.3816785345195068,
    0.7211045239318978,
    0.45455143967485884
  ],
  "weights": [
    [
      0.4039730472132816,
      0.7703971275445528,
      -0.5604665052749305,
      -0.3964886947091087
    ],
    [
      0.569675427025468,
      -0.2600034630426727,
      0.10957549603880476,
      0.021746472712862258
    ],
    [
      -0.08367689637921354,
      0.5352676409626989,
      0.44099403009713767,
      0.3573812258049037
    ],
    [
      0.011968242092580808,
      -0.30477537161800583,
      0.05633507648949046,
      -0.25056010973878673
    ],
    [
      0.461459191088396,
      0.10650996160863122,
      0.26324320046726524,
      0.36761715041599013
    ],
    [
      0.5276939577672997,
      -0.384780686986807,
      0.21405633818891903,
      -0.20159910559344257
    ]
  ]
}